[{"weights": [[-0.015944603514730857, -0.9565102122724354, -0.030514831218266213, -0.9200206797934503, -0.020777218067389473, -0.9839630141834949, -0.0288362190149697, -0.03963381783386153, -0.9399920397811997, 0.28938834512769124, -0.8676607439649231, -0.7175804621797816, -0.5121960287992775, -0.031997841927668164, -0.03478710282211993, -0.9449526189766251, -0.04356112485024258, -0.0347581356559626, -0.0163166730868753, -0.9635584453997571, -0.031879548583921814, -0.029858929180634472, -0.8011438570879958, -0.9864587212882637, -0.013855765045536548, -0.043415294440167645, -0.6491236548561181, -0.021605393362122454, -0.8239386657431981, -0.05829242431946682, -0.02783587837104618, -0.04647614539912325, -0.06270417336472209, -0.9662780145216227, -0.9558027276296256, -0.020751016010588656, -0.03593625075168051, -0.9401019677974524, -2.2058344063875377, -0.6920966826325704, -0.5418195620570516, -0.935110199721681, -0.053155586322549665, -0.03363983056996076, -0.8196829049021837, -0.0007309993187481406, -0.8094040357702543, -0.9823420120389487, 0.30538960498466505, -0.1791985093389269, -0.010915337593480356, -0.9605390131820125, -0.04001508410095976, -0.0187869608790399, 0.013060201763964234, -0.9513376384398398, -0.033809542818948164, -2.2694473614522197, -0.9155051970539096, -0.9593887704447757, -0.0351657419450902, -0.9067990052187994, -0.949095530731682, -0.058647795029812426], [3.7322669103671453, -0.9791829697604243, 4.258778061060892, -0.9734461497769102, 3.580948505300443, -0.9868837367211701, 3.8146467060766787, 3.223243983721475, -0.9672338624844206, 0.5792908779270469, -0.9279295045782747, -0.7020619017771016, -0.3943689051547835, 4.504312225611948, 3.738134904158772, -0.9778533176150296, 3.610642324486647, 4.107557715987276, 3.5730562868777502, -0.9782822692360593, 3.694845598844794, 4.3820534095837615, -0.9743220379972342, -0.9928133574613097, 3.3053121455286316, 4.167227651749922, -0.6457685236144796, 3.9824239571980873, -0.9272895405632303, 4.471489354106447, 4.445985109770706, 3.824705010402287, 4.412893780639394, -0.9580843270795453, -0.9722016998606021, 3.711595482836718, 4.398131056301811, -0.9834558598809985, 0.2880013306125073, -0.9519254045755695, -0.6993519636535332, -0.9419669278361176, 3.7925921974618126, 3.6884279710376924, -0.8861403612328833, -0.8247530093238127, -0.9055855567594798, -0.9860393058206056, 1.1311924339905286, -0.9317567410145396, 0.8202085635155142, -0.9789920656883615, 3.955917335802628, -2.599658273992826e-07, 3.5848879880464235, -0.9685234866775193, 3.689607180300228, -1.5886007171592564, -0.9451011353716955, -0.9711882782524104, 4.163858544943818, -0.9587528199952353, -0.945730908074102, 3.6108991344706207], [-0.02016358556528083, -0.9951044210995782, -0.022509971903484693, -0.9931519942363534, -0.04193971359274194, -0.9988124041751913, -0.030085767835035825, -0.03810463617504954, -0.9929245939544876, -1.0142272589747539, -0.991146206657112, -0.47821484814050286, -0.0021973840671533724, -0.011096242083293857, -0.03901192784521321, -0.9924525084497651, -0.04054605738812118, -0.011088787797757512, -0.06546165909801298, -0.987268231609181, -0.08863234235685413, -0.016797977264480297, -0.9949723080893693, -0.9824404493902974, -0.014826684271346586, -0.03086786001753132, -0.5702793181400051, -0.023191227285608, -0.9850977039076566, -0.06411798662158405, -0.02336493972359208, -0.04780680750940454, -0.043839100213956476, -0.9790758089489878, -0.9889527387206111, -0.030203053207867057, -0.019682587990514616, -0.9904296214436445, 0.05288025556731544, -0.8706796184912136, -0.9751961775032181, -0.9940116990141405, -0.023320094903862554, -0.05945128116590966, -0.9843712858713498, -0.7282934239609407, -0.7777392485867632, -0.9928453796856396, -0.0037875441618395707, -0.9343375608325469, -0.0039965922365593895, -0.9989682995158804, -0.03322706191117109, -0.02093349072888836, -0.05261053314328202, -0.880826546562645, -0.025187934570382764, 0.05268876144895359, -0.5554232694411961, -0.9984684278622045, -0.01958619026043252, -0.9822988563704658, -0.964498063257309, -0.03499330328706951], [-0.041367064112799355, -0.772383609712903, -0.021253562087893033, -0.9941015077706487, -0.03723568362923299, -0.9908707512410428, -0.016049184713207095, -0.0073589276984247914, -0.8668761204320256, -0.015443650860210587, -0.9830595644835117, -0.9878636028348032, -0.9820601543067898, -0.02951972880406684, -0.032359623769067494, -0.997433262093658, -0.041383369777606205, -0.02351868395999213, -0.022801657311562896, -0.9948782143217234, -0.007498310881838306, -0.020688056460138878, -0.7762690412520362, -0.9125843616242147, -0.010568460046615324, -0.01599291549714977, -0.9699664067029248, -0.017968951878164215, -0.38218461663075226, -0.028822308027127354, -0.011833449900608623, -0.04541867144082365, -0.011853687725152247, -0.9966790300092283, -0.9959896638496216, -0.042689962864498526, -0.03923957576586212, -0.9950954392168453, 0.03226414090136689, -0.9971794281322266, -0.7135005051213684, -0.9923763913014731, -0.03562309771708229, -0.03852707019303334, -0.9764228547677796, -0.05127930909204026, -0.9916067250081786, -0.9927904266483165, 0.013738387137722052, -0.8175191941486936, -0.003396946267648441, -0.9979436248576806, -0.007784954343471888, -0.022629453814613752, -0.008909422556289693, -0.9883917891329326, -0.05106522251567493, 0.039720787177546284, -0.9930787944046016, -0.9981074695106555, -0.014072117676231809, -0.9853301969545397, -0.9919968940465596, -0.025190876342239595], [-0.1339422126467666, -8.022471924145084e-14, -0.11877210009917054, -2.851634836719752e-21, -0.11843690267853403, -4.036295142903231e-08, -0.0962557557582564, -0.09458160749167056, -2.917553735801689e-21, 0.4605639825775856, -5.167918344367919e-48, -9.888670550890874e-108, -1.636389769050548e-191, -0.09995182886932465, -0.13736205476875352, -2.1737399580511823e-18, -0.12004081520658037, -0.0726824518888202, -0.1121507055277507, -7.959335770751906e-15, -0.0774093834406258, -0.07298316786056966, -7.487562778660572e-91, -2.3524825832470582e-07, -0.09132917166593538, -0.07555655249689798, -1.1108574826771289e-138, -0.09121916805461588, -6.305382766722287e-65, -1.8998420469996073, -0.07440324587836275, -0.1346959682331842, -0.10660464422850684, -7.032013827442847e-17, -1.1932485602452104e-15, -0.11572248465712132, -0.07975425533464227, -1.8721701628947058e-17, 0.020817301656596558, -1.9453155412232092e-138, -6.238131764245244e-199, -1.854262179594946e-26, -0.09350764347817739, -0.1509635185585285, -3.743760884917454e-71, 7.611581383913157e-300, -1.5216437287373042e-71, -0.0009921152599185726, -2.2339436492762075, -9.6718e-319, -0.020738792358925378, -1.4211847542216624e-12, -0.10251721719767372, -2.350317888013154e-15, -0.09730772446934022, -2.5109438852173152e-14, -0.12138391707520249, -1.7929620249765839, -2.1170221835358943e-28, -2.4373388232488705e-15, -0.06747087871608701, -1.4553762226663478e-35, -7.513703593987846e-19, -0.0802187429239477], [-0.009181346990719833, -0.00025775782852814605, -0.010852769877769484, -2.0166529033788415e-06, -0.01759075250721714, -0.00685160984807504, -0.01829893084693477, 0.006841590090601624, -2.5797536331917108e-06, -1.6615555380274665, -1.8216355847308213e-14, -2.213322318270944e-37, -2.283072689485433e-76, -0.032487410949134016, -0.02648103057850749, -1.1351324648149365e-05, -0.04760690582867862, -0.010478287534881234, 0.001696790513225149, -3.9132842658519816e-05, 0.02763556144980425, -0.031417581359306786, -7.944117419193382e-15, -0.014400522150263065, -0.020408819250631625, -0.012600111874629293, -8.675218948867758e-50, 0.005703982103147871, -6.28795079841788e-17, -0.0351095236157772, -0.02701453770961927, -0.016671853368229177, -0.018033523121241967, -9.363355792422996e-06, -3.4829816173395864e-05, -0.0005666120187901489, -0.03848482493177483, -2.2037636514292604e-05, -0.3062950358120617, -3.0777352211405006e-57, -3.166485773119489e-65, -1.4580510615741475e-08, -0.01499188651439962, -0.01244534262907997, -4.087756897070225e-21, -1.13e-321, -2.3770587424777745e-24, -0.11784757075032112, 0.4371343481520218, -1.047886242812568e-122, -0.0020784377457658907, -0.0003914257040759965, 0.002905689108469716, -7.428802391139176e-09, 0.04579058607074527, -1.617386420688575e-05, -0.004260277694900753, -0.4056967372251537, -2.3162080952271525e-10, -6.582997765392587e-05, -0.028368340061081417, -2.856134303014276e-10, -3.3380561536779814e-07, -0.03375275627171925], [7.04434996251578e-113, -3.801716672339814e-279, -2.9699889430321796e-288, -8.487348181195996e-283, 2.5255357826802695e-279, 1.2434097100169575e-206, 2.4867316933737344e-277, -1.0437375714363965e-226, -7.413492006639196e-255, -5.656647107320607e-280, -1.1131643300170268e-243, -1.1137852979443774e-285, 1.8555704496630962e-287, 1.4163032090671475e-287, 6.787719711525482e-283, 2.1741355361518712e-287, -3.0500055050795407e-279, -8.85538992516719e-288, 8.309691587813577e-286, 2.628012352889775e-255, -8.776814279225887e-277, 3.521662743191246e-255, 8.336885434513202e-287, 2.1676172702509634e-138, -1.3829175640069549e-214, -1.110347647992717e-286, -2.9240860475334885e-283, 1.5324176031436103e-286, -3.989120612165639e-247, -9.415902721633682e-230, 1.505678381052802e-277, 2.826577071908413e-283, 1.6364342584473352e-257, 6.8911433529668e-197, 6.890023735403035e-282, 7.922704376327963e-278, 4.353327735956784e-288, 2.836981375831131e-278, -1.2280447728184978e-269, 1.4775951084765997e-187, -5.894136281905215e-191, 5.219833737405517e-169, 3.754895439566157e-288, -8.096128158948018e-256, -1.838252481960803e-277, 6.769615308188007e-239, -3.5074763357227806e-269, -8.685402267537235e-284, 1.3711981294100987e-287, 1.8102652308831614e-240, -3.0979747062717468e-288, 3.3156346745337865e-248, 6.299095779849134e-287, 3.071679244304225e-92, 1.514164719909055e-286, 7.837392361221666e-157, -6.280847886306272e-261, -2.081808891771755e-287, -4.846341124239874e-163, 8.338483552022815e-218, 1.1534600218592533e-287, -1.1077071706080097e-182, 3.1508235838052377e-268, -3.196429567500464e-288], [-0.05177727389016427, -0.2986222517999186, -0.08305891164888415, -0.12437607123061271, -0.044177274637000975, -0.2764368955788974, -0.05776171258750024, -0.02903490315397062, -0.1529458061855753, 0.7215243954598719, -0.0028775700693319086, -1.257957275639566e-13, -1.5321157994621797e-25, -0.030806980479785886, -0.06174731351259239, -0.171704748682245, -0.06653135385443497, -0.01256479593618631, -0.052762000966321304, -0.15003605765002448, -0.08348604201052627, -0.04784708034214595, -0.0075660097171344936, -0.531164980683813, -0.06426978460379197, -0.049477123661991855, -9.350551278300958e-18, -0.032098743650738934, -0.004741541464590259, -0.076915113494956, -0.031202960642343725, -0.05614491406174754, -0.061604335927169754, -0.1294923989084576, -0.15486156597643297, -0.035279468225655315, -0.04108336686002182, -0.19089607707913062, -2.103687384068895, -4.5980418886623135e-22, -2.37149333159722e-09, -0.034377492975547944, -0.026066590944895954, -0.07603936972947052, -0.00019508921095808587, -3.2470029472156285e-123, -4.202907724536844e-08, -0.667449618757154, 0.08933277609455502, -3.376250491552442e-34, -0.015192950508649007, -0.2950327380454672, -0.04700923166266411, -0.008779870833553933, -0.0381692056486746, -0.018684704996791743, -0.030498151060528087, -2.166313324187838, -0.0007844565711444909, -0.22429491566837392, -0.05298823112042224, -0.03333208328178106, -0.0046730012812635155, -0.03645966429745517], [-0.09712285026613476, -0.033125659949988846, -0.13690757152838512, -0.2517927830770801, -0.06998734268703456, -0.013515634215673682, -0.049277728887457344, -0.08041423519211206, -0.014534253336067247, 0.19250418583719173, -0.00039038613310069713, -0.002488669850628242, -3.6804076166996127e-47, -0.10303279403734485, -0.09000303747446248, -0.2995692989785685, -0.12306173255081056, -0.07003835930421098, -0.10430848061166716, -0.22830057951542268, -0.08434712181453645, -0.11047029156832176, -5.684422312985634e-07, -0.28010104796573915, -0.07564712269765694, -0.08935298799820403, -3.26503549633103e-13, -0.09313663592000201, -1.6700663039277115e-06, -0.1366883674852559, -0.11421910198106064, -0.07815466529909748, -0.12292487795877823, -0.015468651049714984, -0.005787689499735355, -0.10695266079996456, -0.10029208100601827, -0.3325926680491431, -1.2074277830923532, -0.23950756589401684, -1.3206714810825234e-07, -0.07627674576994883, -0.09628495984614177, -0.062275831187917664, -0.0014682399552225773, -2.8474611552542803e-70, -5.051051766678798e-09, -0.5384159279841899, -2.2648517005978244, -2.1010189916599075e-23, -0.015831273758816784, -0.45388292692630744, -0.12993156624054342, -0.24212348923428423, -0.08141304119014241, -0.13626576240060648, -0.11277762433693034, -1.2204687700117764, -1.0945152648910754e-06, -0.3810220924033742, -0.10587249840006101, -0.10290477668257819, -0.32987698556228023, -0.10575065465548115], [-0.022553024483028084, -0.9683615780040549, -0.037083992420870876, -0.9861295594661652, -0.06299521050231804, -0.9887120851569048, -0.032150842600678575, -0.03520429787298915, -0.9576487169748823, 0.05660400482526957, -0.9881523002468334, -0.9868475521620241, -0.8099625171290787, -0.04065288543997103, -0.03821660853794325, -0.993365206644592, -0.025723824307807033, -0.040344715453268336, -0.021492686535788362, -0.9934670994116468, -0.04625179356315894, -0.013673164424877869, -0.8753360794578806, -0.9950111188673553, -0.032685379055439265, -0.041309635200546355, -0.9788861379643556, -0.035300839769903614, -0.8650295411328254, -0.06713739271469205, -0.012441240813352983, -0.05152677341006076, -0.04571159655013795, -0.9815237846038298, -0.9592427854855521, -0.04935111340942137, -0.05220477934099272, -0.989052730232705, -1.0216242592302922, -0.9938764923219701, -0.9619264002295518, -0.9918071195393031, -0.0493108445525542, -0.04220715062276748, -0.9809550516217996, -0.25830061161103596, -0.9682676870823286, -1.0016040908533113, -0.0238205957679387, -0.6521244320155102, -0.0024343338627146917, -0.9818108811147244, -0.06420983239607068, -0.8745776030172622, -0.034024694503980414, -0.9990583347525391, -0.05593782152623025, -1.01575974776043, -0.962851794411821, -0.9941320438777922, -0.012745966394261373, -0.993239450580372, -0.9901812969295185, -0.02533339498167657]], "biases": [[-0.07357376229265633, -1.0829723536324529e-16, -0.061568131100856606, -5.109245401112116e-25, -0.058915472930860524, -2.972308541214367e-10, -0.051618005529133086, -0.05528787444223874, -4.5566778929147856e-26, 0.3702662602783925, -1.4958284085132174e-60, -4.845132217664198e-134, -1.615413783297352e-231, -0.05722446038460012, -0.07974654521796772, -8.256844735741493e-22, -0.0899674299659653, -0.04354238088388772, -0.05854082901048644, -1.6174808143396478e-18, -0.0497645828685066, -0.04420945366602941, -2.6189421156037025e-99, -9.123390532533093e-09, -0.051433214421070066, -0.042719046254847605, -3.332701670433278e-172, -0.05047997855579198, -6.99254093716855e-79, -0.08688291673307565, -0.053969418125799126, -0.0844074911336611, -0.07158804585856139, -1.0035003117612827e-21, -5.447259365544159e-20, -0.06190587264831498, -0.05730347838338154, -2.4054533466113797e-20, -1.2016376096085335, -4.301976355490302e-146, -4.415447035931941e-224, -1.6484285686006434e-33, -0.049265972951678796, -0.09130571287121027, -4.496678714877943e-89, -1.784e-321, -1.821022583440278e-96, -0.0001761122717469551, -1.130868588259821, 1.146e-321, -0.00945022594389482, -8.547456374712634e-15, -0.06130507269987931, -7.838172990906108e-23, -0.04738050776181135, -2.4715656603042696e-18, -0.06573391585543852, -1.811397498286955, -2.5148834456153745e-39, -3.195147119001175e-18, -0.03898595912320967, -1.1057212463450268e-42, -2.9766768603926626e-24, -0.05284063921794319]]}, {"weights": [[-0.04096739692138202, 0.05373954924667974], [-0.9896558985055707, 0.9900378709666752], [-0.04898682756541731, 0.033757806070941726], [-0.9897106443023747, 0.9992771291527232], [-0.04969705103768537, 0.05921290726159306], [-0.9971309533654721, 0.9767940554875981], [-0.03310305026133654, 0.04147506266997215], [-0.041226356704178194, 0.0479795642512092], [-1.0006727545263412, 0.9868160397406639], [-0.0026682056584105447, -0.010494992329356998], [-1.009327408338342, 0.9873693157393755], [-0.9954751078251313, 1.000978960205654], [-1.004481651378594, 0.9935066184744831], [-0.04009667177312494, 0.050654388004035475], [-0.06646110992138116, 0.05018771797490076], [-1.0054571185343475, 0.9811541403443752], [-0.06745477962695792, 0.03886991385396544], [-0.03560361292907858, 0.04172933782680991], [-0.040077725161578044, 0.040858119348932805], [-0.9857701643927937, 1.0039608652075205], [-0.013934394705685391, 0.019264559872707955], [-0.019293778238300793, 0.03552180930848346], [-1.006564616841163, 0.9716544350387006], [-0.9788320892142518, 0.9838912153945892], [-0.019855057584757647, 0.043304830378352796], [-0.040215939051932076, 0.05301417135025807], [-1.015023965076787, 0.9822233298356329], [-0.03919087443086126, 0.04477134385541085], [-1.0034624936141752, 0.9920536359269871], [-0.061293574315328635, 0.0740925993995509], [-0.03647293655411209, 0.009918104622144926], [-0.055643403287176235, 0.05870309448920358], [-0.03779259267910482, 0.06146234204429665], [-0.9906355422637978, 0.9996490477534122], [-0.9873492206395954, 1.002114969147802], [-0.04583231741234205, 0.0455828523297188], [-0.0577638125822317, 0.04789657503558227], [-0.9867221722936084, 0.9989871843910142], [-0.006463394198802689, -0.006211396588968609], [-0.9897820876770761, 0.9944745867987956], [-1.00386870765683, 0.9948970717919872], [-0.998160744032957, 0.9961451013726039], [-0.07443902448139593, 0.049548854573220204], [-0.05665980431708059, 0.05976510774656785], [-0.9918732592086698, 1.0058725934237585], [-1.0050535484192886, 0.9918420498267049], [-1.0050751730835292, 0.989481196041439], [-0.97502799529795, 0.9775467827301061], [-0.0039148674803813335, -0.003290570148805908], [-1.001043412260719, 0.9901199579208347], [-0.01554966912953164, -0.007628583504644186], [-0.9824501374824526, 0.9986701147967773], [-0.055101239440136014, 0.053002087136183824], [1.0001034831412738, -0.9927996524021943], [-0.02342131953989475, 0.0082147920251364], [-0.9922730505162257, 0.9833840159761039], [-0.043969218356645356, 0.06541298692916009], [0.008582414575648494, -0.0005169322389474828], [-0.9932942926739695, 0.9929249402019729], [-0.9996023290996155, 0.9843300493368645], [-0.027961176757709007, 0.026105026136346004], [-0.9927689944751088, 1.0002461206649658], [-0.9928001617068425, 0.9889709368787205], [-0.03290527763623073, 0.03208109873581276]], "biases": [[0.22421242908532704, -0.2242124290853273]]}]